#pragma once
#include <cstdarg>
//#include <stdint.h>
namespace Eloquent {
    namespace ML {
        namespace Port {
            class XGBClassifier {
                public:
                    /**
                    * Predict class for features vector
                    */
                    int predict(float *x) {
                        float votes[3] = { 0.0f };
                        // tree #1
                        if (x[6] <= 3021.955) {
                            if (x[3] <= 2655.3901) {
                                votes[0] += -0.0069314083;
                            }

                            else {
                                if (x[6] <= 2923.6099) {
                                    votes[0] += 0.004285714;
                                }

                                else {
                                    votes[0] += -0.0042857146;
                                }
                            }
                        }

                        else {
                            votes[0] += 0.01437788;
                        }

                        // tree #2
                        if (x[6] <= 3021.955) {
                            if (x[3] <= 2655.3901) {
                                if (x[7] <= 1263.62) {
                                    if (x[0] <= 1326.2051) {
                                        votes[1] += 0.008571428;
                                    }

                                    else {
                                        votes[1] += -2.5544847e-10;
                                    }
                                }

                                else {
                                    if (x[2] <= 1353.0249) {
                                        votes[1] += 0.004285714;
                                    }

                                    else {
                                        if (x[4] <= 1382.8301) {
                                            votes[1] += 0.004285714;
                                        }

                                        else {
                                            votes[1] += 0.012838428;
                                        }
                                    }
                                }
                            }

                            else {
                                if (x[6] <= 2923.6099) {
                                    votes[1] += -2.5544847e-10;
                                }

                                else {
                                    votes[1] += 0.008571428;
                                }
                            }
                        }

                        else {
                            votes[1] += -0.0071889404;
                        }

                        // tree #3
                        if (x[5] <= 1809.0) {
                            if (x[0] <= 1662.97) {
                                if (x[5] <= 1421.5701) {
                                    if (x[2] <= 1579.5249) {
                                        votes[2] += -0.0054545454;
                                    }

                                    else {
                                        votes[2] += 0.0059999996;
                                    }
                                }

                                else {
                                    if (x[1] <= 1734.495) {
                                        votes[2] += -0.0065753427;
                                    }

                                    else {
                                        votes[2] += -2.5544847e-10;
                                    }
                                }
                            }

                            else {
                                votes[2] += 0.0059999996;
                            }
                        }

                        else {
                            votes[2] += -0.0073209554;
                        }

                        // tree #4
                        if (x[6] <= 3021.955) {
                            if (x[3] <= 2655.3901) {
                                votes[0] += -0.00690526;
                            }

                            else {
                                if (x[6] <= 2923.6099) {
                                    votes[0] += 0.004256589;
                                }

                                else {
                                    votes[0] += -0.004275639;
                                }
                            }
                        }

                        else {
                            votes[0] += 0.0141769145;
                        }

                        // tree #5
                        if (x[6] <= 3021.955) {
                            if (x[7] <= 1263.62) {
                                if (x[2] <= 1364.95) {
                                    votes[1] += 0.008517309;
                                }

                                else {
                                    votes[1] += -1.4928237e-05;
                                }
                            }

                            else {
                                if (x[3] <= 2655.3901) {
                                    if (x[2] <= 1353.0249) {
                                        votes[1] += 0.004250626;
                                    }

                                    else {
                                        if (x[5] <= 1421.5701) {
                                            votes[1] += 0.004240447;
                                        }

                                        else {
                                            votes[1] += 0.012671119;
                                        }
                                    }
                                }

                                else {
                                    if (x[6] <= 2923.6099) {
                                        votes[1] += -4.287755e-06;
                                    }

                                    else {
                                        votes[1] += 0.008507141;
                                    }
                                }
                            }
                        }

                        else {
                            votes[1] += -0.0071621784;
                        }

                        // tree #6
                        if (x[5] <= 1809.0) {
                            if (x[0] <= 1662.97) {
                                if (x[5] <= 1421.5701) {
                                    if (x[2] <= 1579.5249) {
                                        votes[2] += -0.005440818;
                                    }

                                    else {
                                        votes[2] += 0.005967326;
                                    }
                                }

                                else {
                                    if (x[2] <= 1367.9299) {
                                        votes[2] += 1.0835563e-05;
                                    }

                                    else {
                                        votes[2] += -0.006554527;
                                    }
                                }
                            }

                            else {
                                votes[2] += 0.0059865806;
                            }
                        }

                        else {
                            votes[2] += -0.007294632;
                        }

                        // tree #7
                        if (x[6] <= 3021.955) {
                            if (x[3] <= 2655.3901) {
                                votes[0] += -0.0068793735;
                            }

                            else {
                                if (x[6] <= 2923.6099) {
                                    votes[0] += 0.0042277374;
                                }

                                else {
                                    votes[0] += -0.004265521;
                                }
                            }
                        }

                        else {
                            votes[0] += 0.013982124;
                        }

                        // tree #8
                        if (x[6] <= 3021.955) {
                            if (x[7] <= 1263.62) {
                                if (x[3] <= 1227.855) {
                                    votes[1] += 0.008468675;
                                }

                                else {
                                    votes[1] += -2.972304e-05;
                                }
                            }

                            else {
                                if (x[3] <= 2655.3901) {
                                    votes[1] += 0.012019452;
                                }

                                else {
                                    if (x[6] <= 2923.6099) {
                                        votes[1] += -8.471514e-06;
                                    }

                                    else {
                                        votes[1] += 0.008443721;
                                    }
                                }
                            }
                        }

                        else {
                            votes[1] += -0.0071356785;
                        }

                        // tree #9
                        if (x[5] <= 1809.0) {
                            if (x[0] <= 1662.97) {
                                if (x[5] <= 1421.5701) {
                                    if (x[2] <= 1579.5249) {
                                        votes[2] += -0.0054303883;
                                    }

                                    else {
                                        votes[2] += 0.0059302323;
                                    }
                                }

                                else {
                                    if (x[1] <= 1734.495) {
                                        votes[2] += -0.0065325117;
                                    }

                                    else {
                                        votes[2] += 2.147487e-05;
                                    }
                                }
                            }

                            else {
                                votes[2] += 0.005973352;
                            }
                        }

                        else {
                            votes[2] += -0.007268465;
                        }

                        // tree #10
                        if (x[6] <= 3021.955) {
                            if (x[3] <= 2655.3901) {
                                votes[0] += -0.006853375;
                            }

                            else {
                                if (x[6] <= 2923.6099) {
                                    votes[0] += 0.0041991575;
                                }

                                else {
                                    votes[0] += -0.004255361;
                                }
                            }
                        }

                        else {
                            votes[0] += 0.013793243;
                        }

                        // tree #11
                        if (x[6] <= 3021.955) {
                            if (x[7] <= 1263.62) {
                                if (x[3] <= 1227.855) {
                                    votes[1] += 0.008403273;
                                }

                                else {
                                    votes[1] += -3.6240763e-05;
                                }
                            }

                            else {
                                if (x[3] <= 2655.3901) {
                                    if (x[2] <= 1353.0249) {
                                        votes[1] += 0.004153083;
                                    }

                                    else {
                                        if (x[4] <= 1382.8301) {
                                            votes[1] += 0.0041383123;
                                        }

                                        else {
                                            votes[1] += 0.01235173;
                                        }
                                    }
                                }

                                else {
                                    if (x[6] <= 2923.6099) {
                                        votes[1] += -1.2553493e-05;
                                    }

                                    else {
                                        votes[1] += 0.008381155;
                                    }
                                }
                            }
                        }

                        else {
                            votes[1] += -0.0071094376;
                        }

                        // tree #12
                        if (x[5] <= 1809.0) {
                            if (x[0] <= 1662.97) {
                                if (x[5] <= 1421.5701) {
                                    if (x[2] <= 1579.5249) {
                                        votes[2] += -0.0054153805;
                                    }

                                    else {
                                        votes[2] += 0.0059023844;
                                    }
                                }

                                else {
                                    if (x[2] <= 1367.9299) {
                                        votes[2] += 3.1815933e-05;
                                    }

                                    else {
                                        votes[2] += -0.0065106205;
                                    }
                                }
                            }

                            else {
                                votes[2] += 0.005959188;
                            }
                        }

                        else {
                            votes[2] += -0.0072427937;
                        }

                        // tree #13
                        if (x[6] <= 3021.955) {
                            if (x[3] <= 2655.3901) {
                                votes[0] += -0.0068280227;
                            }

                            else {
                                if (x[6] <= 2923.6099) {
                                    votes[0] += 0.0041708443;
                                }

                                else {
                                    votes[0] += -0.0042451615;
                                }
                            }
                        }

                        else {
                            votes[0] += 0.013610022;
                        }

                        // tree #14
                        if (x[6] <= 3021.955) {
                            if (x[7] <= 1263.62) {
                                if (x[2] <= 1364.95) {
                                    votes[1] += 0.0083558215;
                                }

                                else {
                                    votes[1] += -5.0727896e-05;
                                }
                            }

                            else {
                                if (x[3] <= 2655.3901) {
                                    votes[1] += 0.011720211;
                                }

                                else {
                                    if (x[6] <= 2923.6099) {
                                        votes[1] += -1.653463e-05;
                                    }

                                    else {
                                        votes[1] += 0.008319429;
                                    }
                                }
                            }
                        }

                        else {
                            votes[1] += -0.0070834546;
                        }

                        // tree #15
                        if (x[5] <= 1809.0) {
                            if (x[0] <= 1662.97) {
                                if (x[5] <= 1421.5701) {
                                    if (x[2] <= 1579.5249) {
                                        votes[2] += -0.0054033366;
                                    }

                                    else {
                                        votes[2] += 0.0058707297;
                                    }
                                }

                                else {
                                    if (x[1] <= 1734.495) {
                                        votes[2] += -0.00649017;
                                    }

                                    else {
                                        votes[2] += 4.6369743e-05;
                                    }
                                }
                            }

                            else {
                                votes[2] += 0.0059463307;
                            }
                        }

                        else {
                            votes[2] += -0.007217274;
                        }

                        // tree #16
                        if (x[6] <= 3021.955) {
                            if (x[3] <= 2655.3901) {
                                votes[0] += -0.0068025617;
                            }

                            else {
                                if (x[6] <= 2923.6099) {
                                    votes[0] += 0.0041427943;
                                }

                                else {
                                    votes[0] += -0.004234924;
                                }
                            }
                        }

                        else {
                            votes[0] += 0.013432226;
                        }

                        // tree #17
                        if (x[6] <= 3021.955) {
                            if (x[7] <= 1263.62) {
                                if (x[0] <= 1326.2051) {
                                    votes[1] += 0.008298589;
                                }

                                else {
                                    votes[1] += -6.140835e-05;
                                }
                            }

                            else {
                                if (x[3] <= 2655.3901) {
                                    if (x[2] <= 1353.0249) {
                                        votes[1] += 0.004058195;
                                    }

                                    else {
                                        if (x[4] <= 1382.8301) {
                                            votes[1] += 0.0040473905;
                                        }

                                        else {
                                            votes[1] += 0.012047991;
                                        }
                                    }
                                }

                                else {
                                    if (x[6] <= 2923.6099) {
                                        votes[1] += -2.0417123e-05;
                                    }

                                    else {
                                        votes[1] += 0.00825853;
                                    }
                                }
                            }
                        }

                        else {
                            votes[1] += -0.0070577255;
                        }

                        // tree #18
                        if (x[5] <= 1809.0) {
                            if (x[0] <= 1662.97) {
                                if (x[5] <= 1421.5701) {
                                    if (x[2] <= 1579.5249) {
                                        votes[2] += -0.0053884108;
                                    }

                                    else {
                                        votes[2] += 0.0058434745;
                                    }
                                }

                                else {
                                    if (x[1] <= 1734.495) {
                                        votes[2] += -0.006468181;
                                    }

                                    else {
                                        votes[2] += 5.426966e-05;
                                    }
                                }
                            }

                            else {
                                votes[2] += 0.0059325397;
                            }
                        }

                        else {
                            votes[2] += -0.007192129;
                        }

                        // tree #19
                        if (x[6] <= 3021.955) {
                            if (x[3] <= 2655.3901) {
                                votes[0] += -0.006777727;
                            }

                            else {
                                if (x[6] <= 2923.6099) {
                                    votes[0] += 0.004115004;
                                }

                                else {
                                    votes[0] += -0.0042246506;
                                }
                            }
                        }

                        else {
                            votes[0] += 0.013259631;
                        }

                        // tree #20
                        if (x[6] <= 3021.955) {
                            if (x[7] <= 1263.62) {
                                if (x[3] <= 1227.855) {
                                    votes[1] += 0.00824104;
                                }

                                else {
                                    votes[1] += -7.126874e-05;
                                }
                            }

                            else {
                                if (x[3] <= 2655.3901) {
                                    if (x[2] <= 1353.0249) {
                                        votes[1] += 0.0040250863;
                                    }

                                    else {
                                        if (x[4] <= 1382.8301) {
                                            votes[1] += 0.0040162704;
                                        }

                                        else {
                                            votes[1] += 0.01190038;
                                        }
                                    }
                                }

                                else {
                                    if (x[6] <= 2923.6099) {
                                        votes[1] += -2.4202403e-05;
                                    }

                                    else {
                                        votes[1] += 0.008198442;
                                    }
                                }
                            }
                        }

                        else {
                            votes[1] += -0.0070322505;
                        }

                        // tree #21
                        if (x[5] <= 1809.0) {
                            if (x[0] <= 1662.97) {
                                if (x[5] <= 1421.5701) {
                                    if (x[2] <= 1579.5249) {
                                        votes[2] += -0.005374745;
                                    }

                                    else {
                                        votes[2] += 0.0058124736;
                                    }
                                }

                                else {
                                    if (x[2] <= 1367.9299) {
                                        votes[2] += 6.385848e-05;
                                    }

                                    else {
                                        votes[2] += -0.006447861;
                                    }
                                }
                            }

                            else {
                                votes[2] += 0.005920034;
                            }
                        }

                        else {
                            votes[2] += -0.007167134;
                        }

                        // tree #22
                        if (x[6] <= 3021.955) {
                            if (x[3] <= 2655.3901) {
                                votes[0] += -0.0067531387;
                            }

                            else {
                                if (x[6] <= 2923.6099) {
                                    votes[0] += 0.0040874714;
                                }

                                else {
                                    votes[0] += -0.004214344;
                                }
                            }
                        }

                        else {
                            votes[0] += 0.013092026;
                        }

                        // tree #23
                        if (x[6] <= 3021.955) {
                            if (x[7] <= 1263.62) {
                                if (x[2] <= 1364.95) {
                                    votes[1] += 0.008195381;
                                }

                                else {
                                    votes[1] += -8.538842e-05;
                                }
                            }

                            else {
                                if (x[3] <= 2655.3901) {
                                    if (x[2] <= 1353.0249) {
                                        votes[1] += 0.0039922814;
                                    }

                                    else {
                                        if (x[4] <= 1382.8301) {
                                            votes[1] += 0.0039854534;
                                        }

                                        else {
                                            votes[1] += 0.011756115;
                                        }
                                    }
                                }

                                else {
                                    if (x[6] <= 2923.6099) {
                                        votes[1] += -2.7892142e-05;
                                    }

                                    else {
                                        votes[1] += 0.008139155;
                                    }
                                }
                            }
                        }

                        else {
                            votes[1] += -0.0070070266;
                        }

                        // tree #24
                        if (x[5] <= 1809.0) {
                            if (x[0] <= 1662.97) {
                                if (x[5] <= 1421.5701) {
                                    if (x[2] <= 1579.5249) {
                                        votes[2] += -0.0053627384;
                                    }

                                    else {
                                        votes[2] += 0.0057818065;
                                    }
                                }

                                else {
                                    if (x[1] <= 1734.495) {
                                        votes[2] += -0.0064274566;
                                    }

                                    else {
                                        votes[2] += 7.59776e-05;
                                    }
                                }
                            }

                            else {
                                votes[2] += 0.0059076953;
                            }
                        }

                        else {
                            votes[2] += -0.007142399;
                        }

                        // tree #25
                        if (x[6] <= 3021.955) {
                            if (x[3] <= 2655.3901) {
                                votes[0] += -0.006728805;
                            }

                            else {
                                if (x[6] <= 2923.6099) {
                                    votes[0] += 0.00406019;
                                }

                                else {
                                    votes[0] += -0.0042040045;
                                }
                            }
                        }

                        else {
                            votes[0] += 0.012929208;
                        }

                        // tree #26
                        if (x[6] <= 3021.955) {
                            if (x[7] <= 1263.62) {
                                if (x[0] <= 1326.2051) {
                                    votes[1] += 0.008137765;
                                }

                                else {
                                    votes[1] += -9.407416e-05;
                                }
                            }

                            else {
                                if (x[3] <= 2655.3901) {
                                    votes[1] += 0.011168886;
                                }

                                else {
                                    if (x[6] <= 2923.6099) {
                                        votes[1] += -3.1488267e-05;
                                    }

                                    else {
                                        votes[1] += 0.008080654;
                                    }
                                }
                            }
                        }

                        else {
                            votes[1] += -0.006982051;
                        }

                        // tree #27
                        if (x[5] <= 1809.0) {
                            if (x[0] <= 1662.97) {
                                if (x[5] <= 1421.5701) {
                                    if (x[2] <= 1579.5249) {
                                        votes[2] += -0.0053507416;
                                    }

                                    else {
                                        votes[2] += 0.0057514617;
                                    }
                                }

                                else {
                                    if (x[2] <= 1367.9299) {
                                        votes[2] += 8.161758e-05;
                                    }

                                    else {
                                        votes[2] += -0.0064061163;
                                    }
                                }
                            }

                            else {
                                votes[2] += 0.0058955178;
                            }
                        }

                        else {
                            votes[2] += -0.0071179215;
                        }

                        // tree #28
                        if (x[6] <= 3021.955) {
                            if (x[3] <= 2655.3901) {
                                votes[0] += -0.0067043523;
                            }

                            else {
                                if (x[6] <= 2923.6099) {
                                    votes[0] += 0.0040331595;
                                }

                                else {
                                    votes[0] += -0.0041936343;
                                }
                            }
                        }

                        else {
                            votes[0] += 0.012770992;
                        }

                        // tree #29
                        if (x[6] <= 3021.955) {
                            votes[1] += 0.010402829;
                        }

                        else {
                            votes[1] += -0.006957323;
                        }

                        // tree #30
                        if (x[5] <= 1809.0) {
                            if (x[0] <= 1662.97) {
                                if (x[5] <= 1421.5701) {
                                    if (x[2] <= 1579.5249) {
                                        votes[2] += -0.005334345;
                                    }

                                    else {
                                        votes[2] += 0.005725333;
                                    }
                                }

                                else {
                                    if (x[1] <= 1734.495) {
                                        votes[2] += -0.0063872347;
                                    }

                                    else {
                                        votes[2] += 0.00010096;
                                    }
                                }
                            }

                            else {
                                votes[2] += 0.0058824276;
                            }
                        }

                        else {
                            votes[2] += -0.007093799;
                        }

                        // return argmax of votes
                        uint8_t classIdx = 0;
                        float maxVotes = votes[0];

                        for (uint8_t i = 1; i < 3; i++) {
                            if (votes[i] > maxVotes) {
                                classIdx = i;
                                maxVotes = votes[i];
                            }
                        }

                        return classIdx;
                    }

                protected:
                };
            }
        }
    }